<?xml version="1.0" encoding="utf-8"?>
<opencv_storage>
<my_nn type_id="opencv-ml-ann-mlp">
  <layer_sizes type_id="opencv-matrix">
    <rows>1</rows>
    <cols>3</cols>
    <dt>i</dt>
    <data>
      3 5 5</data></layer_sizes>
  <activation_function>SIGMOID_SYM</activation_function>
  <f_param1>6.6666666666666663e-001</f_param1>
  <f_param2>1.7159000000000000e+000</f_param2>
  <min_val>-9.4999999999999996e-001</min_val>
  <max_val>9.4999999999999996e-001</max_val>
  <min_val1>-9.7999999999999998e-001</min_val1>
  <max_val1>9.7999999999999998e-001</max_val1>
  <training_params>
    <train_method>BACKPROP</train_method>
    <dw_scale>1.0000000000000000e-002</dw_scale>
    <moment_scale>5.0000000000000003e-002</moment_scale>
    <term_criteria><epsilon>9.9999999392252903e-009</epsilon>
      <iterations>10000000</iterations></term_criteria></training_params>
  <input_scale>
    4.0611197334471466e-002 -5.2603683907340892e+000
    2.2492705814169453e-001 -2.9625142827842588e+001
    2.2556416480783076e-001 -2.2366942582344496e+001</input_scale>
  <output_scale>
    5.2631578947368418e-001 4.9999999999999994e-001
    5.2631578947368418e-001 4.9999999999999994e-001
    5.2631578947368418e-001 4.9999999999999994e-001
    5.2631578947368418e-001 4.9999999999999994e-001
    5.2631578947368418e-001 4.9999999999999994e-001</output_scale>
  <inv_output_scale>
    1.8999999999999999e+000 -9.4999999999999996e-001
    1.8999999999999999e+000 -9.4999999999999996e-001
    1.8999999999999999e+000 -9.4999999999999996e-001
    1.8999999999999999e+000 -9.4999999999999996e-001
    1.8999999999999999e+000 -9.4999999999999996e-001</inv_output_scale>
  <weights>
    <_>
      -2.9808076175503260e+002 1.0059995019833668e+001
      -1.4475470672023471e+001 4.7253072428411294e+000
      9.4444761346841286e+000 3.6593399188551558e+002
      1.4257061744746409e+001 -8.9099639547884948e+000
      1.7419764292915207e+001 1.0374754414971681e+001
      -3.4380078900395966e+002 6.0282396958918376e+000
      -5.0048074841480625e+000 4.6721198870808411e+000
      2.0383061363692704e+001 1.2131957491656989e+001
      -5.7909446518903944e-002 -9.9751738481026546e+000
      1.3412036289366888e+001 -1.2088969606398585e+001</_>
    <_>
      -1.7062404548521778e-001 2.0741281342853260e-001
      9.4643599685660662e-001 -1.0078224648795135e+000
      9.5237880937665220e-002 4.5039461344807824e-001
      -3.2538226109913693e-001 9.7207635394728975e-001
      -8.0078766499836818e-001 1.1188436924834368e-001
      5.2472534546551408e-001 6.9831165046402455e-001
      -1.1224048428305029e-001 -7.9755977215362173e-001
      8.0935179414145367e-002 3.2459349511647917e-001
      8.1069998548965572e-001 -1.0028081790848709e+000
      1.0806435513743378e+000 -1.2223285894087568e+000
      9.0628848009134311e-001 2.0133252227229759e-001
      -1.0376615769297688e-001 -1.0354731281722684e+000
      9.0307795120028081e-002 -5.2859474029797537e-001
      -1.4039547023871619e+000 -1.8093917463538930e-001
      -3.7231054129031409e+000 2.3180975110920393e-001</_></weights></my_nn>
</opencv_storage>
