<?xml version="1.0" encoding="utf-8"?>
<opencv_storage>
<my_nn type_id="opencv-ml-ann-mlp">
  <layer_sizes type_id="opencv-matrix">
    <rows>1</rows>
    <cols>3</cols>
    <dt>i</dt>
    <data>
      3 5 5</data></layer_sizes>
  <activation_function>SIGMOID_SYM</activation_function>
  <f_param1>6.6666666666666663e-001</f_param1>
  <f_param2>1.7159000000000000e+000</f_param2>
  <min_val>-9.4999999999999996e-001</min_val>
  <max_val>9.4999999999999996e-001</max_val>
  <min_val1>-9.7999999999999998e-001</min_val1>
  <max_val1>9.7999999999999998e-001</max_val1>
  <training_params>
    <train_method>BACKPROP</train_method>
    <dw_scale>1.0000000000000000e-002</dw_scale>
    <moment_scale>5.0000000000000003e-002</moment_scale>
    <term_criteria><epsilon>9.9999999392252903e-009</epsilon>
      <iterations>10000000</iterations></term_criteria></training_params>
  <input_scale>
    3.2919859504921850e-001 -3.6063706087641883e+001
    6.4502719766947769e-002 -7.0624027872831112e+000
    3.8116953484933054e-002 -6.8107372486878379e+000</input_scale>
  <output_scale>
    5.2631578947368418e-001 4.9999999999999994e-001
    5.2631578947368418e-001 4.9999999999999994e-001
    5.2631578947368418e-001 4.9999999999999994e-001
    5.2631578947368418e-001 4.9999999999999994e-001
    5.2631578947368418e-001 4.9999999999999994e-001</output_scale>
  <inv_output_scale>
    1.8999999999999999e+000 -9.4999999999999996e-001
    1.8999999999999999e+000 -9.4999999999999996e-001
    1.8999999999999999e+000 -9.4999999999999996e-001
    1.8999999999999999e+000 -9.4999999999999996e-001
    1.8999999999999999e+000 -9.4999999999999996e-001</inv_output_scale>
  <weights>
    <_>
      6.3033939786521449e+000 1.7383169558001160e+001
      -2.0420257682368643e+001 -1.3967891664037952e+001
      -5.8464082189133766e+000 1.4501625417084220e+001
      1.1807839606567917e+001 7.3332042996100411e+000
      1.1473810340775049e+001 -3.0088092042210409e+001
      -9.9724654726649540e+000 -1.5488446719706819e+000
      -1.4255679549390279e+000 -1.4990460516184815e+001
      3.6354368356919187e+000 4.3768919383255538e+000
      -3.8674910917920746e+000 -2.3838355176023576e+001
      -1.0819049694092865e+001 -2.7591256477229280e+001</_>
    <_>
      2.9795507116849057e-002 -4.2110043629173456e-002
      5.0281682483729807e-002 5.1817000837817637e-003
      -2.0297442721224721e-002 -2.0835608091200070e-002
      5.4341887957336431e-002 1.0550890533947619e+000
      -1.1094762638454689e+000 2.1703325653957710e-002
      -2.7601487234376911e-002 -1.0616890234061194e+000
      1.0460068683957062e+000 -1.1048560370037284e+000
      1.1470870037579362e+000 9.9188155568843799e-004
      1.1046845807000900e+000 -1.0950268691219940e+000
      -1.6774829361139217e-002 -5.3779747849180869e-003
      1.1210537002578760e+000 1.6115308888244771e-002
      1.0173847007035136e-002 -1.1352012954311559e+000
      7.6207914530372050e-003 -1.5659422085522449e-002
      -1.7963190412502716e+000 -7.8625416245368687e-002
      -3.8192615563297267e+000 8.2379628300992783e-002</_></weights></my_nn>
</opencv_storage>
