<?xml version="1.0"?>
<opencv_storage>
<my_svm type_id="opencv-ml-svm">
  <svm_type>C_SVC</svm_type>
  <kernel><type>LINEAR</type></kernel>
  <C>1.</C>
  <term_criteria><epsilon>1.1920928955078125e-007</epsilon>
    <iterations>2147483647</iterations></term_criteria>
  <var_all>2</var_all>
  <var_count>2</var_count>
  <class_count>4</class_count>
  <class_labels type_id="opencv-matrix">
    <rows>1</rows>
    <cols>4</cols>
    <dt>i</dt>
    <data>
      2 3 4 5</data></class_labels>
  <sv_total>44</sv_total>
  <support_vectors>
    <_>
      1.46688004e+002 1.46809006e+002</_>
    <_>
      1.48591003e+002 1.48059006e+002</_>
    <_>
      1.47367996e+002 1.45591995e+002</_>
    <_>
      1.47957001e+002 1.46882004e+002</_>
    <_>
      1.47580002e+002 1.47919006e+002</_>
    <_>
      1.46453995e+002 1.45830002e+002</_>
    <_>
      1.42460999e+002 1.55300003e+002</_>
    <_>
      1.41701996e+002 1.53888000e+002</_>
    <_>
      1.41197006e+002 1.52119003e+002</_>
    <_>
      1.40507004e+002 1.50464005e+002</_>
    <_>
      1.39955994e+002 1.53944000e+002</_>
    <_>
      1.39755997e+002 1.50826004e+002</_>
    <_>
      1.41626007e+002 1.53406998e+002</_>
    <_>
      1.39947998e+002 1.52634995e+002</_>
    <_>
      1.37253006e+002 1.54580002e+002</_>
    <_>
      1.39367996e+002 1.50977005e+002</_>
    <_>
      1.41313004e+002 1.52951004e+002</_>
    <_>
      1.37494003e+002 1.54494003e+002</_>
    <_>
      1.40753006e+002 1.48386993e+002</_>
    <_>
      1.41197006e+002 1.52119003e+002</_>
    <_>
      1.43378006e+002 1.49804001e+002</_>
    <_>
      1.44076004e+002 1.50074997e+002</_>
    <_>
      1.38264008e+002 1.51548004e+002</_>
    <_>
      1.39345993e+002 1.51848999e+002</_>
    <_>
      1.40138000e+002 1.51839996e+002</_>
    <_>
      1.40225998e+002 1.52559998e+002</_>
    <_>
      1.38080002e+002 1.50171005e+002</_>
    <_>
      1.39654007e+002 1.52205002e+002</_>
    <_>
      1.39955994e+002 1.53944000e+002</_>
    <_>
      1.38201996e+002 1.50936005e+002</_>
    <_>
      1.39947998e+002 1.52634995e+002</_>
    <_>
      1.40393005e+002 1.54167999e+002</_>
    <_>
      1.40356995e+002 1.53218002e+002</_>
    <_>
      1.40641006e+002 1.53904007e+002</_>
    <_>
      1.40300995e+002 1.52893005e+002</_>
    <_>
      1.40123993e+002 1.53542999e+002</_>
    <_>
      1.47917999e+002 1.48197998e+002</_>
    <_>
      1.49218002e+002 1.49240005e+002</_>
    <_>
      1.41936996e+002 1.47475006e+002</_>
    <_>
      1.47201004e+002 1.47520996e+002</_>
    <_>
      1.46039001e+002 1.51056000e+002</_>
    <_>
      1.45231995e+002 1.44582993e+002</_>
    <_>
      1.46229996e+002 1.46134003e+002</_>
    <_>
      1.47201004e+002 1.47520996e+002</_></support_vectors>
  <decision_functions>
    <_>
      <sv_count>3</sv_count>
      <rho>9.9523848980428138e+000</rho>
      <alpha>
        4.3391085934673709e-002 7.6626801503217434e-002
        -1.2001788743789112e-001</alpha>
      <index>
        0 4 21</index></_>
    <_>
      <sv_count>2</sv_count>
      <rho>5.5147732478242801e+000</rho>
      <alpha>
        2.9317453046267518e-002 -2.9317453046267518e-002</alpha>
      <index>
        0 24</index></_>
    <_>
      <sv_count>12</sv_count>
      <rho>5.6285319907528525e+001</rho>
      <alpha>
        1. 1. 2.3677123162055808e-001 1. 1. 1. -1. -1.
        -6.5987265216427826e-001 -1. -7.8826107656975009e-001
        -7.8863750288652967e-001</alpha>
      <index>
        0 1 2 3 4 5 36 37 39 41 42 43</index></_>
    <_>
      <sv_count>27</sv_count>
      <rho>6.2828276485676291e+001</rho>
      <alpha>
        6.3032954397429772e-002 1. 1. 1. 1. 1. 1. 1. 1. 1. 1. 1.
        4.3306854340230710e-001 1. -1. -1. -1. -1. -1. -1.
        -4.9610149779973667e-001 -1. -1. -1. -1. -1. -1.</alpha>
      <index>
        6 7 8 9 10 11 12 13 14 15 16 17 19 22 23 24 25 26 27 28 29 30 31
        32 33 34 35</index></_>
    <_>
      <sv_count>5</sv_count>
      <rho>9.0692623737814216e+001</rho>
      <alpha>
        6.0140474100285002e-002 9.3985952589971500e-001 1. -1. -1.</alpha>
      <index>
        18 20 21 38 40</index></_>
    <_>
      <sv_count>3</sv_count>
      <rho>8.9471037690458015e+000</rho>
      <alpha>
        1.0001190817296521e-001 -7.2186175353456603e-002
        -2.7825732819508654e-002</alpha>
      <index>
        24 38 40</index></_></decision_functions></my_svm>
</opencv_storage>
