<?xml version="1.0"?>
<opencv_storage>
<my_svm type_id="opencv-ml-svm">
  <svm_type>C_SVC</svm_type>
  <kernel><type>LINEAR</type></kernel>
  <C>1.</C>
  <term_criteria><epsilon>1.1920928955078125e-007</epsilon>
    <iterations>2147483647</iterations></term_criteria>
  <var_all>2</var_all>
  <var_count>2</var_count>
  <class_count>2</class_count>
  <class_labels type_id="opencv-matrix">
    <rows>1</rows>
    <cols>2</cols>
    <dt>i</dt>
    <data>
      0 1</data></class_labels>
  <sv_total>188</sv_total>
  <support_vectors>
    <_>
      4. 2.59433001e-001</_>
    <_>
      13. 4.42389011e-001</_>
    <_>
      9. 3.26761007e-001</_>
    <_>
      9. 3.12895000e-001</_>
    <_>
      9. 3.12783003e-001</_>
    <_>
      4. 2.43477002e-001</_>
    <_>
      8. 3.52741987e-001</_>
    <_>
      3. 2.12127000e-001</_>
    <_>
      6. 3.23926985e-001</_>
    <_>
      4. 2.07741007e-001</_>
    <_>
      6. 2.60526001e-001</_>
    <_>
      6. 2.25170001e-001</_>
    <_>
      7. 2.78362989e-001</_>
    <_>
      2. 1.69030994e-001</_>
    <_>
      5. 2.44784996e-001</_>
    <_>
      7. 3.16166013e-001</_>
    <_>
      3. 1.90629005e-001</_>
    <_>
      3. 1.79885998e-001</_>
    <_>
      5. 2.55241990e-001</_>
    <_>
      8. 3.86898994e-001</_>
    <_>
      10. 4.60242003e-001</_>
    <_>
      2. 1.84228003e-001</_>
    <_>
      5. 2.86294013e-001</_>
    <_>
      7. 2.86980987e-001</_>
    <_>
      7. 2.78295010e-001</_>
    <_>
      7. 2.92261004e-001</_>
    <_>
      6. 3.12209010e-001</_>
    <_>
      5. 1.97823003e-001</_>
    <_>
      7. 3.09491992e-001</_>
    <_>
      5. 2.55241990e-001</_>
    <_>
      5. 2.42360994e-001</_>
    <_>
      6. 3.25594008e-001</_>
    <_>
      3. 1.59235999e-001</_>
    <_>
      4. 2.03861997e-001</_>
    <_>
      6. 2.62158990e-001</_>
    <_>
      3. 1.81446999e-001</_>
    <_>
      3. 1.57014996e-001</_>
    <_>
      4. 2.38731995e-001</_>
    <_>
      9. 3.56700987e-001</_>
    <_>
      7. 2.75765002e-001</_>
    <_>
      9. 4.20608014e-001</_>
    <_>
      3. 1.67888001e-001</_>
    <_>
      8. 2.78153986e-001</_>
    <_>
      9. 3.29129010e-001</_>
    <_>
      6. 2.66023993e-001</_>
    <_>
      7. 3.41360003e-001</_>
    <_>
      5. 2.76540995e-001</_>
    <_>
      6. 2.26127997e-001</_>
    <_>
      7. 3.42431992e-001</_>
    <_>
      6. 2.21658006e-001</_>
    <_>
      3. 1.83564007e-001</_>
    <_>
      5. 2.41463006e-001</_>
    <_>
      6. 2.92052001e-001</_>
    <_>
      11. 4.07801002e-001</_>
    <_>
      6. 2.59604990e-001</_>
    <_>
      7. 3.01010013e-001</_>
    <_>
      5. 1.74244002e-001</_>
    <_>
      5. 2.33045995e-001</_>
    <_>
      8. 3.41529995e-001</_>
    <_>
      8. 3.56427014e-001</_>
    <_>
      5. 2.28263006e-001</_>
    <_>
      4. 2.10935995e-001</_>
    <_>
      7. 3.26667011e-001</_>
    <_>
      3. 2.02105001e-001</_>
    <_>
      5. 2.42742002e-001</_>
    <_>
      3. 1.80454001e-001</_>
    <_>
      8. 3.78089994e-001</_>
    <_>
      5. 1.85023993e-001</_>
    <_>
      4. 1.99110001e-001</_>
    <_>
      5. 2.49118999e-001</_>
    <_>
      9. 3.41327012e-001</_>
    <_>
      5. 2.58159012e-001</_>
    <_>
      9. 3.32940012e-001</_>
    <_>
      6. 3.30069005e-001</_>
    <_>
      5. 2.33465999e-001</_>
    <_>
      7. 2.75705993e-001</_>
    <_>
      7. 3.23035985e-001</_>
    <_>
      8. 2.76816994e-001</_>
    <_>
      5. 2.07870007e-001</_>
    <_>
      11. 4.72128987e-001</_>
    <_>
      5. 2.87741989e-001</_>
    <_>
      10. 4.05050993e-001</_>
    <_>
      6. 3.03272009e-001</_>
    <_>
      4. 2.01764002e-001</_>
    <_>
      5. 1.82500005e-001</_>
    <_>
      8. 2.91889995e-001</_>
    <_>
      7. 3.14909995e-001</_>
    <_>
      6. 2.64559001e-001</_>
    <_>
      5. 2.45740995e-001</_>
    <_>
      10. 4.37588990e-001</_>
    <_>
      8. 4.00853008e-001</_>
    <_>
      6. 2.71522999e-001</_>
    <_>
      5. 2.84357995e-001</_>
    <_>
      7. 3.08023006e-001</_>
    <_>
      8. 1.93176001e-001</_>
    <_>
      7. 2.09527001e-001</_>
    <_>
      1. 7.70395994e-002</_>
    <_>
      5. 1.63016006e-001</_>
    <_>
      7. 1.79628000e-001</_>
    <_>
      4. 1.57462001e-001</_>
    <_>
      2. 1.08248003e-001</_>
    <_>
      7. 1.69042006e-001</_>
    <_>
      5. 1.55730993e-001</_>
    <_>
      7. 2.30871007e-001</_>
    <_>
      5. 1.36547998e-001</_>
    <_>
      4. 7.01164007e-002</_>
    <_>
      5. 1.41632006e-001</_>
    <_>
      12. 3.53148013e-001</_>
    <_>
      2. 9.03088972e-002</_>
    <_>
      7. 1.65252000e-001</_>
    <_>
      9. 2.20907003e-001</_>
    <_>
      8. 2.01793998e-001</_>
    <_>
      7. 1.95986003e-001</_>
    <_>
      11. 3.31254005e-001</_>
    <_>
      3. 1.53981999e-001</_>
    <_>
      5. 1.31679997e-001</_>
    <_>
      7. 1.63782001e-001</_>
    <_>
      8. 1.82327002e-001</_>
    <_>
      9. 2.18934000e-001</_>
    <_>
      9. 2.47458994e-001</_>
    <_>
      3. 1.51671007e-001</_>
    <_>
      10. 2.82141000e-001</_>
    <_>
      8. 2.09209993e-001</_>
    <_>
      5. 1.59884006e-001</_>
    <_>
      4. 1.74397007e-001</_>
    <_>
      4. 1.17498003e-001</_>
    <_>
      10. 2.74484992e-001</_>
    <_>
      4. 1.62037998e-001</_>
    <_>
      3. 8.64256024e-002</_>
    <_>
      10. 3.15697014e-001</_>
    <_>
      4. 1.38289005e-001</_>
    <_>
      8. 1.90660998e-001</_>
    <_>
      12. 3.33833009e-001</_>
    <_>
      8. 2.58720011e-001</_>
    <_>
      6. 1.61642998e-001</_>
    <_>
      4. 1.30465001e-001</_>
    <_>
      3. 8.70935023e-002</_>
    <_>
      3. 1.34222999e-001</_>
    <_>
      5. 1.48398995e-001</_>
    <_>
      6. 1.78857997e-001</_>
    <_>
      6. 1.99487001e-001</_>
    <_>
      4. 1.26149997e-001</_>
    <_>
      3. 1.20866001e-001</_>
    <_>
      10. 2.63832986e-001</_>
    <_>
      5. 1.11510001e-001</_>
    <_>
      10. 3.06446999e-001</_>
    <_>
      7. 1.53496996e-001</_>
    <_>
      5. 1.12066999e-001</_>
    <_>
      5. 1.20784000e-001</_>
    <_>
      12. 3.52239013e-001</_>
    <_>
      8. 1.85533002e-001</_>
    <_>
      8. 2.19710007e-001</_>
    <_>
      5. 1.20284997e-001</_>
    <_>
      7. 1.71067998e-001</_>
    <_>
      6. 1.72801003e-001</_>
    <_>
      5. 1.61708996e-001</_>
    <_>
      8. 2.48023003e-001</_>
    <_>
      6. 1.98030993e-001</_>
    <_>
      5. 1.35745004e-001</_>
    <_>
      7. 2.04583004e-001</_>
    <_>
      9. 2.49362007e-001</_>
    <_>
      6. 1.65653005e-001</_>
    <_>
      5. 1.71748996e-001</_>
    <_>
      9. 2.76740998e-001</_>
    <_>
      5. 1.16104998e-001</_>
    <_>
      2. 1.19079001e-001</_>
    <_>
      4. 1.61412001e-001</_>
    <_>
      7. 1.80173993e-001</_>
    <_>
      11. 2.98417002e-001</_>
    <_>
      5. 1.40552998e-001</_>
    <_>
      8. 2.64402986e-001</_>
    <_>
      7. 2.45161995e-001</_>
    <_>
      9. 2.79103994e-001</_>
    <_>
      9. 2.87115991e-001</_>
    <_>
      3. 1.50193006e-001</_>
    <_>
      2. 1.13017999e-001</_>
    <_>
      8. 2.70898014e-001</_>
    <_>
      4. 1.14767998e-001</_>
    <_>
      4. 1.27651006e-001</_>
    <_>
      4. 1.39758006e-001</_>
    <_>
      7. 1.73565000e-001</_>
    <_>
      4. 1.48968995e-001</_>
    <_>
      4. 1.73189998e-001</_>
    <_>
      5. 1.18414000e-001</_>
    <_>
      5. 1.50176004e-001</_>
    <_>
      5. 1.64343998e-001</_>
    <_>
      5. 1.37749001e-001</_>
    <_>
      4. 1.00928999e-001</_></support_vectors>
  <decision_functions>
    <_>
      <sv_count>188</sv_count>
      <rho>2.9145717813358639e-002</rho>
      <alpha>
        8.3162370194956603e-001 1. 1. 1. 1. 1. 1. 1. 1. 1. 1. 1. 1. 1.
        1. 1. 1. 1. 1. 1. 1. 1. 1. 1. 1. 1. 1. 1. 1. 1. 1. 1. 1. 1. 1.
        1. 1. 1. 1. 1. 1. 1. 1. 1. 1. 1. 1. 1. 1. 1. 1. 1. 1. 1. 1. 1.
        1. 1. 1. 1. 1. 1. 1. 1. 1. 1. 1. 1. 1. 1. 1. 1. 1. 1. 1. 1. 1.
        1. 1. 1. 1. 1. 1. 1. 1. 1. 1. 1. 1. 1. 1. 1. 1. 1. -1. -1. -1.
        -1. -1. -1. -1. -1. -1. -1. -1. -1. -1. -1. -1. -1. -1. -1. -1.
        -1. -1. -1. -1. -8.3162370194956647e-001 -1. -1. -1. -1. -1. -1.
        -1. -1. -1. -1. -1. -1. -1. -1. -1. -1. -1. -1. -1. -1. -1. -1.
        -1. -1. -1. -1. -1. -1. -1. -1. -1. -1. -1. -1. -1. -1. -1. -1.
        -1. -1. -1. -1. -1. -1. -1. -1. -1. -1. -1. -1. -1. -1. -1. -1.
        -1. -1. -1. -1. -1. -1. -1. -1. -1. -1. -1. -1. -1. -1. -1. -1.</alpha>
      <index>
        0 1 2 3 4 5 6 7 8 9 10 11 12 13 14 15 16 17 18 19 20 21 22 23 24
        25 26 27 28 29 30 31 32 33 34 35 36 37 38 39 40 41 42 43 44 45
        46 47 48 49 50 51 52 53 54 55 56 57 58 59 60 61 62 63 64 65 66
        67 68 69 70 71 72 73 74 75 76 77 78 79 80 81 82 83 84 85 86 87
        88 89 90 91 92 93 94 95 96 97 98 99 100 101 102 103 104 105 106
        107 108 109 110 111 112 113 114 115 116 117 118 119 120 121 122
        123 124 125 126 127 128 129 130 131 132 133 134 135 136 137 138
        139 140 141 142 143 144 145 146 147 148 149 150 151 152 153 154
        155 156 157 158 159 160 161 162 163 164 165 166 167 168 169 170
        171 172 173 174 175 176 177 178 179 180 181 182 183 184 185 186
        187</index></_></decision_functions></my_svm>
</opencv_storage>
