<?xml version="1.0"?>
<opencv_storage>
<my_svm type_id="opencv-ml-svm">
  <svm_type>C_SVC</svm_type>
  <kernel><type>LINEAR</type></kernel>
  <C>1.</C>
  <term_criteria><epsilon>1.1920928955078125e-007</epsilon>
    <iterations>2147483647</iterations></term_criteria>
  <var_all>2</var_all>
  <var_count>2</var_count>
  <class_count>2</class_count>
  <class_labels type_id="opencv-matrix">
    <rows>1</rows>
    <cols>2</cols>
    <dt>i</dt>
    <data>
      0 1</data></class_labels>
  <sv_total>17</sv_total>
  <support_vectors>
    <_>
      1.42492004e+002 1.43660004e+002</_>
    <_>
      1.39710999e+002 1.41751999e+002</_>
    <_>
      1.40574997e+002 1.41987000e+002</_>
    <_>
      1.41186996e+002 1.42460999e+002</_>
    <_>
      1.48237000e+002 1.47587006e+002</_>
    <_>
      1.43001007e+002 1.44522995e+002</_>
    <_>
      1.41404007e+002 1.42947998e+002</_>
    <_>
      1.41792999e+002 1.43817001e+002</_>
    <_>
      1.41477997e+002 1.46942001e+002</_>
    <_>
      1.40973999e+002 1.44207993e+002</_>
    <_>
      1.45429993e+002 1.47227997e+002</_>
    <_>
      1.43281006e+002 1.45022003e+002</_>
    <_>
      1.35569000e+002 1.39742004e+002</_>
    <_>
      1.38660995e+002 1.41434006e+002</_>
    <_>
      1.42421005e+002 1.45641006e+002</_>
    <_>
      1.44692001e+002 1.44992996e+002</_>
    <_>
      1.42582993e+002 1.44397003e+002</_></support_vectors>
  <decision_functions>
    <_>
      <sv_count>17</sv_count>
      <rho>-3.5439303828406047e+001</rho>
      <alpha>
        1. 1. 6.6313319145330729e-002 1. 1.5118580135416892e-001 1. 1.
        1. 1. -1. -1. -1. -1. -1. -2.1749912049949827e-001 -1. -1.</alpha>
      <index>
        0 1 2 3 4 5 6 7 8 9 10 11 12 13 14 15 16</index></_></decision_functions></my_svm>
</opencv_storage>
