<?xml version="1.0"?>
<opencv_storage>
<my_svm type_id="opencv-ml-svm">
  <svm_type>C_SVC</svm_type>
  <kernel><type>RBF</type>
    <gamma>8.</gamma></kernel>
  <C>1.</C>
  <term_criteria><epsilon>1.1920928955078125e-007</epsilon>
    <iterations>2147483647</iterations></term_criteria>
  <var_all>4</var_all>
  <var_count>4</var_count>
  <class_count>2</class_count>
  <class_labels type_id="opencv-matrix">
    <rows>1</rows>
    <cols>2</cols>
    <dt>i</dt>
    <data>
      0 1</data></class_labels>
  <sv_total>161</sv_total>
  <support_vectors>
    <_>
      7.45760024e-001 4.50913000e+000 -6.78031015e+000 1.61703002e+000</_>
    <_>
      9.33939993e-001 1.14692001e+001 -2.41028004e+001 1.19223995e+001</_>
    <_>
      8.57035995e-001 6.37278986e+000 -1.12145004e+001 4.03916979e+000</_>
    <_>
      7.37214029e-001 6.35602999e+000 -1.26321001e+001 5.66354990e+000</_>
    <_>
      1.00660002e+000 9.08547020e+000 -1.83617992e+001 8.54493999e+000</_>
    <_>
      9.84983027e-001 8.75726032e+000 -1.68859005e+001 7.30465984e+000</_>
    <_>
      8.09276998e-001 8.35723972e+000 -1.70000992e+001 7.87727976e+000</_>
    <_>
      6.68497980e-001 5.87198019e+000 -1.10088997e+001 4.57961988e+000</_>
    <_>
      9.50519979e-001 8.88356972e+000 -1.79542999e+001 8.36509991e+000</_>
    <_>
      7.60298014e-001 5.31579018e+000 -9.22321033e+000 3.27550006e+000</_>
    <_>
      7.83424973e-001 6.85305977e+000 -1.39315996e+001 6.46436977e+000</_>
    <_>
      9.39691007e-001 1.07167997e+001 -2.33684006e+001 1.18500996e+001</_>
    <_>
      7.90813982e-001 3.94696999e+000 -5.26885986e+000 6.10159993e-001</_>
    <_>
      9.04628992e-001 9.03077984e+000 -1.91968994e+001 9.41024971e+000</_>
    <_>
      8.65163982e-001 7.37411022e+000 -1.40745001e+001 5.87984991e+000</_>
    <_>
      9.19070005e-001 8.84613991e+000 -1.83192005e+001 8.83813953e+000</_>
    <_>
      9.39226985e-001 9.36676025e+000 -2.07047005e+001 1.05649996e+001</_>
    <_>
      8.87445986e-001 1.09158001e+001 -2.47780991e+001 1.31648998e+001</_>
    <_>
      7.70232022e-001 7.14409018e+000 -1.34081001e+001 5.52206993e+000</_>
    <_>
      8.15240026e-001 6.84015989e+000 -1.28590002e+001 5.42016983e+000</_>
    <_>
      9.47975993e-001 8.43725014e+000 -1.72369995e+001 8.01414013e+000</_>
    <_>
      9.20033991e-001 1.09698000e+001 -2.34109001e+001 1.17081003e+001</_>
    <_>
      8.53702009e-001 8.89190960e+000 -1.76630001e+001 8.13278961e+000</_>
    <_>
      1.06251001e+000 1.06533003e+001 -2.17973995e+001 1.03079004e+001</_>
    <_>
      7.19290972e-001 7.07185984e+000 -1.41479998e+001 6.48599005e+000</_>
    <_>
      8.02829027e-001 6.83329010e+000 -1.30994997e+001 5.63961983e+000</_>
    <_>
      9.26689029e-001 1.25003996e+001 -2.86578007e+001 1.54407997e+001</_>
    <_>
      7.29601979e-001 9.51241970e+000 -2.11224995e+001 1.10361996e+001</_>
    <_>
      8.55174005e-001 8.73198032e+000 -1.84188004e+001 8.93451023e+000</_>
    <_>
      8.46890986e-001 8.01760960e+000 -1.57897997e+001 6.94788980e+000</_>
    <_>
      8.98281991e-001 8.60935020e+000 -1.85093002e+001 9.15291977e+000</_>
    <_>
      7.77184010e-001 6.83517981e+000 -1.34899998e+001 5.94835997e+000</_>
    <_>
      9.31478977e-001 8.10383034e+000 -1.51140003e+001 6.22848988e+000</_>
    <_>
      8.20394993e-001 7.30192995e+000 -1.48564997e+001 6.85771990e+000</_>
    <_>
      9.37434018e-001 1.10424004e+001 -2.39734001e+001 1.22207003e+001</_>
    <_>
      8.34406972e-001 6.88771009e+000 -1.28264999e+001 5.23054981e+000</_>
    <_>
      7.99458027e-001 7.59985018e+000 -1.50518999e+001 6.75747013e+000</_>
    <_>
      8.61118972e-001 8.13105011e+000 -1.67651005e+001 7.93577003e+000</_>
    <_>
      1.01680005e+000 1.07686005e+001 -2.38442001e+001 1.22721004e+001</_>
    <_>
      9.53350008e-001 9.47803020e+000 -1.96520996e+001 9.33041954e+000</_>
    <_>
      9.19992983e-001 1.18354998e+001 -2.75377998e+001 1.49587002e+001</_>
    <_>
      8.31695974e-001 7.94959021e+000 -1.65287991e+001 7.85096979e+000</_>
    <_>
      9.55923021e-001 1.04872999e+001 -2.05337009e+001 9.35286999e+000</_>
    <_>
      9.89741981e-001 9.43177986e+000 -1.89505005e+001 8.67539024e+000</_>
    <_>
      1.05734003e+000 1.19195995e+001 -2.60809002e+001 1.34378004e+001</_>
    <_>
      8.68957996e-001 9.10737991e+000 -1.93516998e+001 9.52499962e+000</_>
    <_>
      8.94967020e-001 9.02898979e+000 -1.91112995e+001 9.39898968e+000</_>
    <_>
      1.03559005e+000 9.45740986e+000 -1.74890003e+001 7.13234997e+000</_>
    <_>
      8.36798012e-001 7.17940998e+000 -1.36236000e+001 5.84598017e+000</_>
    <_>
      8.79082978e-001 7.12898016e+000 -1.31857996e+001 5.42698002e+000</_>
    <_>
      8.28800023e-001 6.62427998e+000 -1.21429996e+001 4.80929995e+000</_>
    <_>
      8.98887992e-001 8.23431015e+000 -1.56985998e+001 6.79639006e+000</_>
    <_>
      7.61135995e-001 5.35180998e+000 -9.75105000e+000 3.80744004e+000</_>
    <_>
      8.10980976e-001 8.30788040e+000 -1.75639000e+001 8.57514954e+000</_>
    <_>
      1.04347003e+000 1.18549995e+001 -2.58651009e+001 1.31726999e+001</_>
    <_>
      9.07173991e-001 9.61200047e+000 -2.13304005e+001 1.08824997e+001</_>
    <_>
      7.37003982e-001 7.50097990e+000 -1.61558990e+001 8.01716042e+000</_>
    <_>
      8.49808991e-001 8.08370018e+000 -1.68547001e+001 8.05776024e+000</_>
    <_>
      6.51322007e-001 5.21999979e+000 -1.00773001e+001 4.37652016e+000</_>
    <_>
      9.68365014e-001 1.02479000e+001 -2.18742008e+001 1.08871002e+001</_>
    <_>
      8.98883998e-001 7.39984989e+000 -1.44314003e+001 6.30887985e+000</_>
    <_>
      8.60351026e-001 5.22081995e+000 -7.78396988e+000 1.60959005e+000</_>
    <_>
      8.69580984e-001 1.24478998e+001 -2.81397991e+001 1.50670004e+001</_>
    <_>
      9.23970997e-001 9.92658043e+000 -2.14165993e+001 1.06491003e+001</_>
    <_>
      8.39461029e-001 8.19659996e+000 -1.63708992e+001 7.52212000e+000</_>
    <_>
      9.45354998e-001 1.02601004e+001 -2.11707001e+001 1.01617002e+001</_>
    <_>
      8.02269995e-001 6.14285994e+000 -1.06669998e+001 4.00878000e+000</_>
    <_>
      1.06147003e+000 1.21396999e+001 -2.81380997e+001 1.50943003e+001</_>
    <_>
      9.42054987e-001 9.23311996e+000 -1.87744007e+001 8.79749966e+000</_>
    <_>
      8.24564993e-001 1.03868999e+001 -2.30688000e+001 1.19990997e+001</_>
    <_>
      7.18722999e-001 4.02577019e+000 -5.98583984e+000 1.22593999e+000</_>
    <_>
      8.80541980e-001 6.99546003e+000 -1.24296999e+001 4.72235012e+000</_>
    <_>
      6.90039992e-001 6.82567978e+000 -1.44792004e+001 7.03311014e+000</_>
    <_>
      8.11215997e-001 8.06455040e+000 -1.72001991e+001 8.38801003e+000</_>
    <_>
      9.89821017e-001 1.05381002e+001 -2.24416008e+001 1.10749998e+001</_>
    <_>
      8.77530992e-001 8.32649994e+000 -1.74944992e+001 8.45211983e+000</_>
    <_>
      7.60892987e-001 4.02816010e+000 -5.61271000e+000 8.04647982e-001</_>
    <_>
      8.45694005e-001 1.09195004e+001 -2.55543995e+001 1.39385996e+001</_>
    <_>
      8.33666980e-001 5.23850012e+000 -7.70534992e+000 1.66839004e+000</_>
    <_>
      8.40885997e-001 7.40435982e+000 -1.49913998e+001 6.91305017e+000</_>
    <_>
      6.10572994e-001 3.34634995e+000 -4.82797003e+000 1.04852998e+000</_>
    <_>
      8.62967014e-001 1.00359001e+001 -2.18505001e+001 1.11233997e+001</_>
    <_>
      8.54385018e-001 8.13628960e+000 -1.64895000e+001 7.60722017e+000</_>
    <_>
      8.91740024e-001 6.44296980e+000 -1.08670998e+001 3.59278011e+000</_>
    <_>
      9.62128997e-001 7.86016989e+000 -1.42557001e+001 5.46996021e+000</_>
    <_>
      7.94313014e-001 7.44180012e+000 -1.52931995e+001 7.23090982e+000</_>
    <_>
      9.24475014e-001 9.00076008e+000 -1.89344997e+001 9.16882038e+000</_>
    <_>
      9.85700011e-001 9.24530983e+000 -1.85874996e+001 8.57927990e+000</_>
    <_>
      8.31200004e-001 9.64138985e+000 -2.15727997e+001 1.12247000e+001</_>
    <_>
      9.40617979e-001 6.06614017e+000 -1.02182999e+001 3.24733996e+000</_>
    <_>
      7.70246029e-001 6.99106979e+000 -1.47215996e+001 7.14812994e+000</_>
    <_>
      7.72194982e-001 7.24235010e+000 -1.53615999e+001 7.51838017e+000</_>
    <_>
      7.71386981e-001 6.40545988e+000 -1.34952002e+001 6.52830982e+000</_>
    <_>
      7.03354001e-001 6.08909988e+000 -1.27981997e+001 6.16234016e+000</_>
    <_>
      7.89569020e-001 7.48331976e+000 -1.61327000e+001 8.02081966e+000</_>
    <_>
      7.53630996e-001 6.25589991e+000 -1.25000000e+001 5.67560005e+000</_>
    <_>
      7.07211018e-001 6.76308012e+000 -1.50075998e+001 7.65178013e+000</_>
    <_>
      8.99782002e-001 9.20615005e+000 -1.97406998e+001 9.97299004e+000</_>
    <_>
      9.03343022e-001 8.60791969e+000 -1.78794003e+001 8.64836025e+000</_>
    <_>
      6.47948027e-001 5.92454004e+000 -1.20816002e+001 5.64805984e+000</_>
    <_>
      8.48092020e-001 7.28769016e+000 -1.46917000e+001 6.80412006e+000</_>
    <_>
      9.15723979e-001 9.46842957e+000 -1.96921997e+001 9.63486004e+000</_>
    <_>
      9.23332989e-001 8.31385040e+000 -1.72707005e+001 8.26780033e+000</_>
    <_>
      6.91609025e-001 6.54304981e+000 -1.45416002e+001 7.44682980e+000</_>
    <_>
      7.34331012e-001 6.27011013e+000 -1.27084999e+001 5.83902979e+000</_>
    <_>
      7.53372014e-001 6.58910990e+000 -1.39801998e+001 6.83578014e+000</_>
    <_>
      6.09812021e-001 5.98339987e+000 -1.34877996e+001 7.05191994e+000</_>
    <_>
      8.34945023e-001 7.72168016e+000 -1.64295006e+001 8.01607037e+000</_>
    <_>
      6.25178993e-001 6.56000996e+000 -1.41082001e+001 7.01393986e+000</_>
    <_>
      6.83664978e-001 6.99024010e+000 -1.50160999e+001 7.49723005e+000</_>
    <_>
      6.00636005e-001 4.41835022e+000 -8.55836010e+000 3.69774008e+000</_>
    <_>
      9.12180007e-001 8.58625031e+000 -1.81630993e+001 8.96319962e+000</_>
    <_>
      6.71207011e-001 6.20681000e+000 -1.29748001e+001 6.25453997e+000</_>
    <_>
      6.98876023e-001 7.11799002e+000 -1.61186008e+001 8.44381046e+000</_>
    <_>
      8.45937014e-001 7.26820993e+000 -1.51318998e+001 7.18713999e+000</_>
    <_>
      8.29402983e-001 6.80132008e+000 -1.40042000e+001 6.53611994e+000</_>
    <_>
      7.56824017e-001 7.18626022e+000 -1.47779999e+001 7.00481987e+000</_>
    <_>
      6.73514009e-001 6.13044977e+000 -1.27615995e+001 6.08070993e+000</_>
    <_>
      7.43067980e-001 6.72278023e+000 -1.40267000e+001 6.70746994e+000</_>
    <_>
      7.58315980e-001 7.04267979e+000 -1.43669996e+001 6.72360992e+000</_>
    <_>
      7.86566973e-001 7.31366014e+000 -1.50302000e+001 7.13450003e+000</_>
    <_>
      8.80877018e-001 7.91622019e+000 -1.62173004e+001 7.57547998e+000</_>
    <_>
      8.42154980e-001 6.86312008e+000 -1.40576000e+001 6.52219009e+000</_>
    <_>
      8.17885995e-001 7.60477018e+000 -1.58768997e+001 7.63633013e+000</_>
    <_>
      6.90928996e-001 6.18649006e+000 -1.32483997e+001 6.56689978e+000</_>
    <_>
      6.49659991e-001 5.19176006e+000 -1.09995003e+001 5.30723000e+000</_>
    <_>
      8.83677006e-001 6.71385002e+000 -1.38620996e+001 6.43284988e+000</_>
    <_>
      6.85689986e-001 7.36552000e+000 -1.49014997e+001 7.00636005e+000</_>
    <_>
      8.12512994e-001 7.06479979e+000 -1.42781000e+001 6.60095978e+000</_>
    <_>
      8.94428015e-001 8.56066990e+000 -1.82903996e+001 9.00162983e+000</_>
    <_>
      8.84050012e-001 8.58878040e+000 -1.82126999e+001 8.96994019e+000</_>
    <_>
      8.26359987e-001 7.40685987e+000 -1.50832996e+001 7.00157976e+000</_>
    <_>
      8.19305003e-001 6.41297007e+000 -1.34214001e+001 6.36302996e+000</_>
    <_>
      8.80985975e-001 6.29061985e+000 -1.25614996e+001 5.56790018e+000</_>
    <_>
      7.94328988e-001 6.17682981e+000 -1.29041004e+001 6.06542015e+000</_>
    <_>
      9.27730024e-001 8.18797016e+000 -1.62770004e+001 7.38721991e+000</_>
    <_>
      6.08852029e-001 4.89943981e+000 -1.00488005e+001 4.65516996e+000</_>
    <_>
      8.66026998e-001 7.91049004e+000 -1.58547001e+001 7.30612993e+000</_>
    <_>
      8.21839988e-001 7.52233982e+000 -1.54511003e+001 7.33884001e+000</_>
    <_>
      6.72082007e-001 4.96157980e+000 -9.57446003e+000 4.11266994e+000</_>
    <_>
      8.74051988e-001 8.18784046e+000 -1.66688004e+001 7.87133980e+000</_>
    <_>
      7.43544996e-001 6.91588020e+000 -1.49190998e+001 7.41092014e+000</_>
    <_>
      8.53016019e-001 8.38140965e+000 -1.83299999e+001 9.26642036e+000</_>
    <_>
      7.75958002e-001 7.56139994e+000 -1.60704994e+001 7.86859989e+000</_>
    <_>
      7.16747999e-001 6.40836000e+000 -1.38284998e+001 6.83151007e+000</_>
    <_>
      6.18618011e-001 7.28407001e+000 -1.67324009e+001 9.08248997e+000</_>
    <_>
      7.99878001e-001 7.05408001e+000 -1.53162003e+001 7.59220982e+000</_>
    <_>
      7.04194009e-001 6.50722980e+000 -1.41982002e+001 7.13949013e+000</_>
    <_>
      7.70918012e-001 6.81394005e+000 -1.44506998e+001 7.00907993e+000</_>
    <_>
      7.50469029e-001 7.01703978e+000 -1.48647003e+001 7.23269987e+000</_>
    <_>
      8.29087019e-001 7.66810989e+000 -1.64493008e+001 8.15196037e+000</_>
    <_>
      7.32416987e-001 6.74139023e+000 -1.44618998e+001 7.15276003e+000</_>
    <_>
      9.90227997e-001 8.15450001e+000 -1.68560009e+001 7.92810011e+000</_>
    <_>
      6.75866008e-001 6.61517000e+000 -1.48848000e+001 7.70969009e+000</_>
    <_>
      7.17185974e-001 6.63950014e+000 -1.40956001e+001 6.89164019e+000</_>
    <_>
      6.99199975e-001 5.79920006e+000 -1.20072002e+001 5.68275976e+000</_>
    <_>
      7.60963023e-001 5.83712006e+000 -1.12516003e+001 4.83086014e+000</_>
    <_>
      8.02543998e-001 7.10174990e+000 -1.46688995e+001 6.97797012e+000</_>
    <_>
      8.35389972e-001 9.13033009e+000 -1.92625008e+001 9.45648956e+000</_>
    <_>
      8.01979005e-001 7.60543013e+000 -1.60722008e+001 7.89521980e+000</_>
    <_>
      7.21170008e-001 6.45191002e+000 -1.35298996e+001 6.49171019e+000</_></support_vectors>
  <decision_functions>
    <_>
      <sv_count>161</sv_count>
      <rho>-7.0184679746303080e-001</rho>
      <alpha>
        2.9806884498071190e-001 2.7959491524255570e-001
        2.6081572215919907e-001 1.1545254633942109e-001
        1.5151168965218836e-001 2.9165943679690565e-001
        3.9087504425330877e-001 6.4157921371359472e-001
        1.3545375417260030e-001 2.9437351279833779e-001 1.
        1.3544474204783191e-001 2.4029883059073848e-001
        9.7173894916156980e-002 2.3185048334973141e-001
        5.5442113160976053e-002 2.9127041973684825e-001
        2.9813259874687920e-001 1.2786781713316231e-001
        7.0635951443174708e-002 1.4665109255695552e-001
        2.2226543236078072e-001 2.3738358357696959e-001
        2.9171335533163739e-001 1. 1.2493157355985557e-001
        2.8751714852505328e-001 2.2368508405239537e-001
        5.8136661925578881e-001 6.5703986689172300e-001 1.
        3.2469956965676261e-001 2.9576972839678728e-001 1.
        1.7224814668162208e-001 2.0517268302572256e-001
        1.3610003511260216e-001 1. 2.1211415688690455e-001
        2.3434678163491812e-001 2.9341340570580371e-001
        1.3971069308850781e-001 2.9811373496821691e-001
        2.3311075234413653e-001 2.1617836973995302e-001
        8.2216196782322570e-001 4.6665158024125830e-001
        2.9790627541458659e-001 1.1993741172119587e-001
        1.2414309032342347e-001 2.5852618465391952e-001
        1.8412076106918973e-003 3.8347822776732771e-001
        1.8841224701385567e-001 2.1617861432067759e-001
        8.0925208592996095e-002 1. 4.4318817973339197e-001
        5.6398386729535666e-001 1.9953405018565856e-001
        3.0124066360062463e-001 1.5544635356058578e-001
        2.1253777683632433e-001 2.3580500995975801e-001 1.
        2.8633587381452147e-001 2.5250434108989539e-001
        2.1491774969090932e-001 6.9952105989568220e-002
        2.7437737951986663e-001 2.8137220311936684e-001
        2.5031691856014471e-001 1. 1.6628232396855533e-001
        2.9102047543722365e-001 2.8951658980667212e-002
        2.1116792056877343e-001 2.9813213494134033e-001
        1.5541327554373319e-001 1. 2.9766448400506712e-001
        1.7447921109624956e-001 4.9521112600927558e-001
        2.5674802296907351e-001 2.9144285452344137e-001 1.
        3.5813062135532168e-002 1.0020652248073778e-001
        2.1935484702241653e-001 2.9660829388016474e-001 1. 1. 1. 1. 1.
        4.9641361743444518e-001 1. 2.4345112505901759e-001
        2.1249751044102744e-001 1. 1. 9.3000082808376960e-002
        2.9372876519564217e-002 9.5759537779418213e-001 1. 1.
        4.1192695593957263e-001 1. 1. 1. 2.9815639784296522e-001 1.
        -9.7961404466317470e-001 -1. -1. -3.9060764645554213e-001 -1.
        -1. -7.0383039173098050e-001 -7.5244659146345705e-001
        -1.7714075707607657e-001 -1. -1. -6.9997855903872197e-001 -1.
        -1. -1. -1. -1. -1. -1. -1. -1. -1. -1. -1. -1. -1. -1. -1. -1.
        -1. -1. -1. -1. -1. -1. -1. -1. -1. -1. -1. -1. -1. -1. -1. -1.
        -1. -1. -1. -1.</alpha>
      <index>
        0 1 2 3 4 5 6 7 8 9 10 11 12 13 14 15 16 17 18 19 20 21 22 23 24
        25 26 27 28 29 30 31 32 33 34 35 36 37 38 39 40 41 42 43 44 45
        46 47 48 49 50 51 52 53 54 55 56 57 58 59 60 61 62 63 64 65 66
        67 68 69 70 71 72 73 74 75 76 77 78 79 80 81 82 83 84 85 86 87
        88 89 90 91 92 93 94 95 96 97 98 99 100 101 102 103 104 105 106
        107 108 109 110 111 112 113 114 115 116 117 118 119 120 121 122
        123 124 125 126 127 128 129 130 131 132 133 134 135 136 137 138
        139 140 141 142 143 144 145 146 147 148 149 150 151 152 153 154
        155 156 157 158 159 160</index></_></decision_functions></my_svm>
</opencv_storage>
